1.444683959502976733e-01
2.216544408724164736e-02
3.765499468722418447e-02
-4.714768581610231241e-02
-5.297234721066849950e-02
-4.922275856856946075e-02
1.814721393781829409e-02
-2.376937750059512633e-01
2.344152678237771022e-03
-3.660292206050624192e-02
-1.007340034342991686e-01
-1.148629316715969219e-02
-1.127381854689512262e-02
-1.476472050930640878e-01
-3.628677868435072063e-02
1.745093133106605243e-02
1.872355096593803989e-02
1.708535849365568765e-02
3.991681721815851236e-02
2.512076434786868900e-02
2.509429507250384231e-02
1.270351612050160846e-02
2.122078590129566639e-03
2.427482758411316291e-02
2.251056610081224596e-01
1.972385124159668421e-02
4.673475120558836376e-02
-3.576278163953727079e-02
2.774232469500213794e-02
-1.674443334969148434e-01
1.960621405227007744e-02
-2.815411414197796156e-02
-1.059330894995693384e-01
-4.605345962736586037e-03
-2.342863654045766741e-02
6.713428296053865901e-03
-3.459916176657432119e-02
5.672309275337147905e-02
-1.555595028166617370e-02
4.653518564455132178e-02
1.159621754921985387e-03
-2.054589092653102619e-02
1.332829829021631943e-03
6.355859462044613495e-02
-1.431923147051346601e-01
-6.096475021680546752e-02
6.675894983033384134e-02
-1.920728047591628920e-02
1.463683788136082090e-02
-4.380964486278327019e-02
-1.522900974527223172e-01
-2.106721494433777108e-03
9.330572913344854780e-02
-3.840118747531509058e-01
-9.177212995735390538e-03
6.866796045620842705e-03
-6.615576175003760051e-01
-1.220211100043440966e-01
-6.602469336024960334e-02
3.702572934248987008e-02
-1.679967336884198581e-02
-6.341781822930211976e-02
2.448062117439217880e-02
1.975400460312939921e-01
1.157284833808326502e-01
6.789841375787478150e-02
-3.294828198717835582e-02
3.875605018949621755e-02
3.820452136574024882e-02
7.352853961732762345e-02
-6.987948715128353139e-02
3.924424141891253437e-01
-1.623645403977606594e-01
-1.818884695138543381e-02
-4.101082567477860874e-02
9.359725031238015636e-02
-1.209662511817033003e-03
2.862983133541790320e-02
-2.976933041212155226e-02
3.641343382681386590e-03
-4.080374599753210790e-02
-7.639372041140765623e-02
-3.291010083044057510e-01
-2.935644594529086826e-03
-3.021458767885289512e-02
1.212718196845278228e-02
3.011036105590211495e-02
-6.743888373979365670e-03
6.377253462900206275e-03
2.084155291992074166e-01
1.695933534558176359e-02
5.936752571163726733e-02
2.528773979398489871e-02
1.667038408615173842e-02
1.763494092942736666e-02
5.181394047383514750e-02
-7.822515387673599496e-02
-7.101356525450976120e-02
7.614034359905549366e-03
2.273065479580833534e-02
-7.369344314113271399e-02
1.404500249775487118e-02
-8.570130203004086566e-02
-2.748969074079931491e-02
-7.902582869770337359e-02
-1.687616864348456466e-02
-4.730752526636471111e-02
7.441158830128387358e-02
-1.483364090455485673e-02
1.013375857816734699e-02
2.201986822733407664e-02
4.479918304416055652e-02
1.411532416942168182e-02
1.947782956961393447e-02
2.660999921747967539e-02
6.269341631653856106e-02
9.598768088454805170e-02
3.947578346927218401e-02
-4.274663863469005333e-04
-8.786126080703010252e-03
2.944195730411651012e-03
4.949825510168793380e-02
-1.465194041559041149e-01
2.727020009061672731e-02
-5.552134864225567734e-02
2.557827583476980290e-02
-4.381795922839898209e-03
5.368687844038631113e-02
1.045992850301374899e-02
5.190397613287234257e-02
6.982632301657814948e-03
4.154622400599482235e-02
5.908593178597511264e-02
1.658232898926426460e-02
1.663101977069446069e-01
-3.067111716230682544e-02
-4.343524211754278691e-02
4.123782873670769900e-02
1.808770232174097825e-02
-1.292288233595343012e-02
2.060479384356893665e-02
-8.328577942734168710e-03
2.962212379296692236e-03
7.050144383138343129e-02
-2.498161838471393923e-03
3.068280905121589103e-02
4.831364012403047831e-02
5.975753873148142645e-03
5.674128312010659134e-03
1.048398992104412203e-02
1.836606553642151224e-02
-2.726118059070746155e-03
-8.681703982782440487e-02
-1.252142900820582549e-01
-3.903063695452586856e-02
-8.082822497133188705e-03
8.187555742728823763e-03
2.656862787260935981e-03
-2.787709101006002888e-02
2.080254959220115968e-02
1.287076304295535142e-02
1.257338514272693560e-02
-3.495469452108891737e-03
2.398637599770990503e-02
-1.465462121759489866e-01
5.330248651602606524e-02
-4.625891025345660323e-02
7.383019708729522679e-02
-6.704306361759249100e-02
-1.708010903890590515e-01
4.242836729974184401e-02
8.804232378366043735e-03
2.056515610691527982e-02
-3.012251528306546158e-03
-3.148496256171778168e-02
3.180762318537695005e-02
5.506305607090051374e-04
3.463785806067441742e-02
1.982288309224059311e-02
3.378922824745033554e-02
-3.465975168257678235e-02
9.846841284048748338e-03
1.330893093738816021e-02
2.227123865935866712e-02
5.437096001098275233e-02
2.940336585060332117e-02
-1.960687999193190881e-02
6.009369863897936342e-02
6.461967898130045740e-02
6.585851913085311038e-02
-3.655899447331848601e-02
2.987135437618079759e-02
4.434112204565382465e-02
-1.216589550973213030e-01
-1.945019567165283750e-02
-4.392551875163164254e-02
5.776315521393043939e-03
3.842984996962529876e-02
1.968498398792672965e-01
7.783836237414665758e-03
7.225550401553411384e-02
1.419124690432761390e-02
-2.763382560617782396e-02
-6.385082470937300525e-02
-1.231367018402865915e-01
-7.640635411136427468e-02
-1.513632783157286277e-01
-3.476483386203917114e-02
1.678393953959306586e-02
1.706857493750107146e-01
3.278407621318606135e-02
1.485717523789159729e-02
-9.182207407776738980e-03
-6.508454418742244674e-02
-1.099344900947691328e-01
-4.918731631494281317e-03
-8.329490460446876965e-02
-9.467023955706521665e-02
7.992885339274559539e-04
2.809654281159026240e-02
1.673618774594217568e-02
7.179317462286562146e-02
1.250008864437221826e-02
-1.089118004784641325e-01
-2.035582619466155471e-02
-7.930633332006756242e-02
-1.345125494723269088e-01
-2.383343010803373394e-02
4.389356955392095805e-03
8.203484632735089099e-02
4.887354286611525316e-03
1.260612182214211098e-02
4.065498672037633904e-02
-1.686886207588173502e-03
-1.702612528650113977e-01
-9.392655986125481027e-02
2.070422943788777781e-01
-7.813037952727322488e-03
3.705956375029172134e-02
-2.109937531717818657e-02
4.873704773654993772e-02
6.391850624128730951e-02
7.007154939345026923e-02
-4.419455912431584366e-02
1.454040812189645419e-02
6.752449023007037199e-02
-9.723462154428459681e-02
-6.980517833607322031e-02
3.772609463583657952e-02
5.853671547569110067e-02
2.614746540012907391e-02
-2.508292274240873573e-02
5.460969339688994534e-02
-2.023329592901465697e-03
3.312477309641227718e-02
1.290638305364102956e-01
1.270002705949373201e-01
1.854528888981330226e-01
1.266625400406916069e-01
3.168555859564283622e-02
-4.691808027321169722e-02
-2.883389799325305689e-02
4.242524846599324273e-02
3.871052402103351137e-02
1.206899806576947071e-04
4.653847455524619953e-02
3.639543764045205521e-02
1.887514027116851401e-01
3.565958729248019932e-02
3.014838644482684474e-02
-3.181930800318242408e-02
4.703102923571375004e-06
-5.397072232988576503e-03
-6.837464608802462651e-02
3.741093362812035750e-01
-2.628453748487825578e-02
2.371126113376821609e-02
-7.799082882583799337e-02
4.135470133626305278e-02
4.073316259764625177e-03
8.869847665608849435e-03
9.506172165037664323e-02
-4.011222903591914885e-02
1.023218277932988994e-02
3.189186926839103486e-02
4.532176838026477639e-02
-1.023896176502619298e-02
-3.888949577666652585e-02
-7.695294379054079537e-02
-1.470722112242824897e-01
-2.777412886336223449e-02
-5.722922717370472999e-03
-5.878163664573228531e-02
-8.254344050783504402e-03
-4.974047358128082241e-02
3.699330535733879460e-02
1.174552936688253585e-01
5.063283180625700874e-02
3.402606428430540036e-02
4.621016422922812755e-02
1.480583496296739854e-01
-1.837243315312715383e-02
-9.828426959214897618e-02
2.092993690542205645e-02
1.126206509374121090e-02
1.948790470740307534e-01
3.651177960744101531e-02
-3.841944587681282459e-03
3.030573658346420729e-02
1.005176613180520789e-01
2.823268130252478900e-02
1.041270768092997234e-02
-3.537153050886762684e-02
-5.231517261876027225e-02
-1.828931757844461450e-02
-2.564655602624934388e-02
3.898758949976284267e-03
-6.499420895540643055e-03
2.143506338450975462e-02
1.206698654444800407e-02
-7.005901483780618301e-05
-6.426830184742100827e-02
1.112243175404786649e-01
1.452394805761455902e-02
2.819554483981931425e-02
4.225084178616446418e-02
7.404528328639592427e-02
1.577016098562481622e-02
-8.877772039186065944e-02
-5.183988646100114173e-02
1.796866044404895127e-02
1.327479083692249817e-02
3.062228013809613694e-02
4.939213746247444331e-02
-4.840173839416444385e-02
2.531552637771756695e-02
-5.480709191774214839e-02
4.500767394866093951e-02
3.289304760902933555e-02
-4.495622232960105186e-02
-1.161914326627042082e-02
3.039938411367436658e-02
1.736414796836583188e-02
2.603995233032629572e-02
3.019190344948670390e-02
1.958775471471400353e-01
4.972622113938473393e-02
3.080580674404693672e-02
2.391047104354991279e-02
-1.077271135667264290e-01
-3.228049056328066713e-02
2.094110141723184298e-02
-3.387834800527106394e-02
5.482615095817049838e-02
2.047840953651848886e-02
-1.944693642292058457e-03
-5.912300532904262926e-03
-7.801811833205944853e-03
-1.951924049880827960e-02
1.115251651191897543e-03
-8.338740718862524062e-03
-5.263590345036194690e-02
1.117535065240016778e-01
-1.533378567615998863e-03
4.780231539230452714e-02
-9.743669647630080755e-02
-2.496411864547469148e-02
-5.463344498772149116e-02
-3.462332935198154937e-02
9.033237371321625742e-02
-1.624476286347702192e-02
-4.046234842225516354e-02
-5.500872286112187814e-02
6.014865222403140699e-01
1.064733633336855528e-01
1.067192488077360266e-02
-1.301198580092962631e-01
-3.522502063063109867e-02
-1.114989151427329683e-01
-2.352016479531460202e-02
-3.339098083532986150e-02
-1.528279774992460094e-01
-8.393594864662300842e-03
1.634536833642022055e-02
2.422283968536287704e-02
-2.594356086204202202e-02
-2.149108425706241013e-02
6.625060234517428370e-02
-2.811434549702364338e-02
-4.280573345313955919e-02
-1.520733649367090289e-02
3.946080255430687439e-02
-9.474714209482724969e-03
-2.874379647767477675e-02
3.909666865623267519e-03
2.512633357364897624e-02
1.180053666394431239e-01
4.832372206157614398e-05
-6.716981974594064819e-02
3.280836013290443914e-02
-1.342495117922209991e-02
-7.111384767226345063e-03
1.770100554301833884e-01
1.729076229788033547e-01
4.771690033834633665e-02
1.476574650589130254e-02
7.280962827012410141e-04
2.292967446884504323e-02
4.162662014738128385e-02
2.400015285125164585e-02
-4.281849604774937840e-02
7.183546249162077457e-02
-2.259502389407356815e-01
-4.891112153766953574e-02
-1.119436654981991082e-02
-1.075071896695900947e-01
-7.591102889048942370e-02
-3.942715573609094533e-03
-1.015823600498119879e-02
1.128875184683614669e-01
6.404593984405089480e-02
2.228158611932676628e-02
-1.388912439226013817e-01
-2.031047269742607478e-02
5.311824656554256507e-02
-2.527937449273691406e-02
-3.710924259197598968e-02
6.868635999331752437e-03
6.734022869059787253e-02
-1.000634173216597735e-02
4.592872859037253064e-02
3.634756700063059703e-02
9.617979883837807220e-02
-2.428690379511942027e-02
4.203427720745856605e-02
-2.083647517808677185e-01
4.916459137750012892e-02
2.590259201996742561e-02
-7.220894458529056315e-02
-2.057440516173229816e-02
2.046449070782477200e-03
-9.338391312123117682e-02
3.117606864687567925e-02
3.725867136660006990e-02
1.330285576623449484e-02
1.471935516616832140e-01
1.026751638611526039e-02
5.782350513218759147e-02
-8.248336305705677995e-02
-4.700604540880843479e-02
-1.866527021794275598e-01
7.630777312192120465e-02
-1.190515306850525737e-03
-1.503761263237426808e-02
6.097019659040615880e-03
-7.565630310150854576e-02
-6.669305557280774677e-02
-4.103506372763912613e-02
-2.591372593386164283e-02
-4.612697820529184506e-02
-2.783161892817625008e-02
1.969497155148527620e-02
2.832047919782983147e-02
1.415336442307805684e-02
3.112238474213592510e-02
5.692402360926018118e-02
2.015511297011602157e-02
5.133266779956196894e-03
-8.184000644704991778e-02
3.495562102946251151e-03
-1.499281311732529598e-01
1.646892524298494351e-02
7.292690009073057519e-03
5.420388581513872067e-02
9.437935454005320912e-02
-2.503861946298169272e-02
-1.100556134595925412e-01
9.322660371334596727e-03
-2.113759596922116547e-03
1.103092636963515227e-02
-2.361383455663613670e-02
-1.123620009900283892e-02
3.928763705020881652e-02
2.370042085764501733e-02
9.873059748761750520e-03
1.067073507235878800e-02
1.669158110820765165e-02
-3.194324205539866499e-03
-8.198482979377949564e-02
-5.073199049618309919e-02
-7.212722777228069634e-03
1.888768581796658741e-01
5.036766014699792238e-02
-1.324331402551870152e-01
1.264452248687614466e-01
2.012762164895637480e-03
6.570175935176465927e-03
-4.685244840009773065e-02
-4.133389299581016751e-02
-1.829730756744747666e-02
-4.105464457706857299e-03
5.618084906731953682e-02
6.926360665467329314e-02
1.107901933971375957e-01
4.776975163276508257e-02
4.790620987577158540e-02
-1.465459184909975732e-02
2.620421266506418531e-02
1.672843850540161811e-02
-2.166005859976652403e-02
-9.573295280414305386e-02
-9.682897677014928872e-02
-1.446078934827970675e-01
-1.581024731582629517e-02
1.031423810346880632e-01
2.528258472902802229e-02
1.289177383096125687e-02
3.123565742254268973e-01
2.431230250607023524e-01
-9.763643118710176039e-02
-1.403433974504904834e-02
1.632372820988670092e-02
-1.494960135335043211e-02
3.620924013296647828e-03
-1.570504362674491339e-01
-4.682759107667444631e-02
1.342851971388702159e-01
-5.384494291274381783e-02
-3.826572393863774540e-02
4.731009498368769078e-02
-5.795970769346244812e-03
9.394605302769391472e-03
1.806774296746158776e-02
4.339604992603494915e-02
1.181607964719798148e-01
-5.554473984618983617e-02
1.747695809425249547e-02
-1.054716615062624013e-01
-8.471569126487372980e-02
1.153262779983046070e-02
1.677715495274395910e-02
-2.482220371171546883e-02
2.232498416905232333e-02
4.967548240596467851e-02
-1.318831862074465976e-02
8.361941313720680502e-02
2.722374561964888487e-02
-3.768828139722046194e-02
-5.249285975429291394e-03
-1.349821172275124936e-01
3.384847300069720316e-02
8.442423170483095637e-03
-1.719136444031211033e-02
5.965575232628959890e-02
-4.781810188112445986e-02
-2.901047739088713495e-01
6.039673121069953632e-02
2.814052368480688543e-02
-4.257075999650604403e-02
-2.800156518362717506e-02
5.130750869878399067e-02
1.746738085971576149e-02
5.820553836471108883e-02
-2.043261232400280514e-01
-5.674108490994483195e-02
3.923966342434682258e-02
6.083196689393602363e-02
-5.081717093092787303e-03
1.975677915636727192e-02
-1.534058590010331791e-01
-1.194530068781930396e-02
7.894501812279149100e-02
3.502289330948775339e-03
3.116663607069552686e-02
1.753950223361337435e-01
5.163638295532355094e-02
-1.087855237984237944e-02
-8.143285686445575836e-03
4.152476284567326731e-02
3.571198441996344813e-02
-1.568745811583376060e-02
-2.108821283873792488e-02
5.317138200719261423e-03
-2.335072756113155609e-02
-1.532758961365065890e-02
9.343280215701538216e-02
7.436401381958751555e-02
2.853740087221947469e-02
-2.569678327653595121e-02
1.335198106327040342e-02
1.980724917160681803e-02
-3.997991221402253520e-03
-2.560977038683832571e-02
-1.007208051488443432e-02
-8.640849718367268895e-02
-7.891120222736623668e-02
3.549318244203216333e-03
1.641896252207394880e-02
-1.542830005714359298e-01
-1.201019917271041459e-01
-8.605609602366753874e-02
-2.016144890708333401e-02
4.580592156226006434e-02
1.644562981780949007e-02
5.022554903938324794e-02
1.635399895594834979e-02
4.397582141710029008e-02
1.005452215374720657e-03
-5.616987539537192375e-02
7.477109000577568387e-02
8.465348933871373605e-03
8.963955663917418104e-02
4.309831460545087561e-02
3.699248992425429455e-02
-8.142731372619342600e-02
2.002894764851048323e-02
3.103028079698538083e-02
1.504818080746984574e-02
3.510220565380380714e-02
-2.104005778418982422e-03
-4.018040531907326324e-02
4.811185613861243549e-02
-1.241967675821538664e-01
3.372346743964659693e-02
-3.184451346255443710e-02
3.609950896852380520e-02
2.438628375244053237e-01
1.093549757605779410e-01
1.582569438794477756e-01
1.487018676321977817e-01
3.957473599138055381e-02
-1.157750835061609022e-02
7.114266259135126891e-02
2.894379190863780038e-02
3.040761192401338769e-02
1.342881727155862716e-02
3.588892834548602917e-02
5.254011625942405818e-03
-6.142560491880753870e-02
-7.810821286595459080e-04
-5.275604065064105203e-02
7.872979515750512525e-02
1.002288180116808064e-01
-1.647169618863648021e-04
6.994260634888267714e-02
4.139485687067133435e-02
-2.651245772583278870e-01
-4.895361220048164569e-03
-1.353801498824029337e-01
-1.059990913811869329e-01
-1.935864826909035677e-02
7.470277634918507520e-03
3.287785922376995629e-02
-3.031460769954034129e-01
-1.744024355327957743e-01
3.163484728318288058e-02
5.367986203133327805e-02
3.186203531970529385e-02
-3.720852982330747488e-02
-4.182735310401525936e-02
-3.147703704387081608e-02
9.402188778614801665e-03
-7.200101787257003061e-02
4.150181150916125439e-02
1.028093094396944351e-01
-1.257346825681986136e-01
-7.604235626197845821e-02
2.827997679770968484e-02
-8.701502398530275295e-02
3.245767333518998626e-02
-3.273967760867512594e-02
-1.319945679839065744e-01
5.576616907406887862e-03
-2.203997352877199931e-02
-4.085581918232905618e-02
-3.500022587424257009e-02
-6.823005839599403932e-02
8.984708480861960597e-03
3.789040197277274841e-02
-3.676427175652392798e-02
-1.813438718866807603e-02
3.535892330378304776e-02
3.096031819899816920e-02
-2.650644482814880701e-02
1.108477938828661830e-01
5.977777851288306604e-02
-3.278470581654061630e-03
-9.170325674176527109e-03
-4.281916862641304417e-02
-3.469569046956123837e-02
-2.271734600858519443e-02
7.596840112444676330e-02
1.076023464432884907e-01
4.044603003966510540e-02
2.486311654846406691e-02
1.433148781919169577e-02
-1.562977019326334260e-01
-3.335862806119965773e-02
2.246252505891594559e-02
5.708395210225484379e-02
1.670446246261530210e-01
8.475232749582588265e-02
-2.848076908355371122e-03
4.964119906858146386e-02
5.322300115189079056e-02
6.493912573029921032e-02
2.193444166156113817e-02
-2.841653972601417347e-02
5.518386850867297577e-02
-5.569892894722667381e-02
6.290483656320613667e-03
-1.080236384349371331e-01
-5.121447893513059180e-02
2.229935677448879536e-02
-1.734579099779572434e-02
-2.565219351564219583e-02
-2.467373382325005818e-02
2.046234680140243331e-02
2.962418965844438104e-02
-1.638546910413619107e-01
5.673176159124554419e-02
1.026906565807989870e-02
9.834532857788190301e-04
8.321848084691581271e-02
6.415917602983145507e-02
3.715056855078172765e-02
5.654457473094709474e-02
-2.365529037541353602e-02
-1.943717772730556639e-02
-5.391363489516826091e-02
8.245209466234527202e-04
-2.011295105256868249e-02
-5.444480550714894673e-02
-1.673848487642301194e-02
-1.510683342992662770e-01
1.347434537632838658e-01
-4.475970454911549351e-02
-5.409339534954094031e-02
3.372651419124854996e-03
-2.841415994361260952e-02
-4.299093852514587061e-02
-3.677538386480461857e-02
-2.424155387685699922e-02
-2.153674621519313659e-02
-2.511207025056514872e-02
6.842908811905411282e-02
-1.480059439364453909e-02
-4.615446741408991971e-02
-2.532430198145739220e-01
4.950667134031773442e-02
4.243835100756341433e-02
7.935691769936949191e-03
5.135340831500649628e-02
9.415665009386681161e-02
2.056517094601746296e-02
5.724131621623082360e-03
-4.086371481910282960e-02
-7.030353543882088274e-02
2.918479881052233466e-02
-9.152593288829436596e-03
8.852497569672596045e-02
-4.091878219304861258e-02
3.865259139588631682e-02
1.985367507424833523e-03
1.980266629713261714e-02
-5.742426117613930181e-02
-4.716445332210343969e-03
1.651986413959655176e-02
-3.122009539918775903e-02
-3.701795462425725575e-02
-2.637536070924267895e-02
1.549358364968104508e-02
-3.155113315554697317e-02
-6.485609460150454364e-02
3.647811119922832190e-02
8.057716551743593011e-03
3.098955589834645474e-02
1.352061337857028700e-01
-2.727170004024119521e-02
-9.848795911160924954e-02
4.620708570305667728e-02
9.933186770421420508e-02
-6.385893214488207181e-02
5.175003937170775080e-03
-1.977235378490307602e-02
5.298868113579435768e-02
-6.399779277039732706e-02
-3.857426654481943551e-02
4.698161257041221645e-02
2.791956456023718738e-02
-6.923901940594281816e-03
-4.608628255026962078e-02
6.290861838294944941e-02
3.137830173663677669e-02
5.918439938250922433e-02
8.497700056941098756e-02
2.452453014514289348e-02
-2.219109182559569817e-03
4.484580079829086213e-02
5.040818543826457165e-02
5.644021893968371312e-02
-1.375646798155141515e-01
-7.140698948504499433e-02
-2.403938600731822528e-02
-3.059625708613419523e-02
6.697552589835077674e-02
-2.715319429504377269e-02
-1.874687994913743980e-02
-5.243863346733036029e-03
-3.511372381712112717e-02
-6.735327331161956865e-02
3.145768002593425650e-02
-7.925733398612388667e-03
7.164479332260747201e-03
4.060256601425639260e-03
-2.856269570653884732e-02
-1.796937859298746581e-02
1.321809072140848855e-02
2.150374584324766993e-03
-3.328892532496089546e-02
-4.549028436245327461e-02
-1.079284171338051185e-02
5.887147855479109120e-03
-3.203578469325697731e-02
-4.350374969055724461e-02
-1.483109330450341212e-02
-3.516261147196320797e-02
3.321940776885615176e-02
1.380357117773435560e-01
-2.845438308217758741e-02
-4.257645341932025235e-02
2.337948683787642590e-02
7.493589799913118535e-03
1.415638215224451213e-01
-1.430281945982904250e-02
4.002797164835127097e-03
-2.719106012765369340e-01
6.129530977967168753e-02
1.322406229850874720e-02
9.407715775385731838e-02
2.916477987776926184e-02
-1.396813341306190129e-03
-2.476035559535594288e-02
-2.365193621204261798e-02
1.606027704298967906e-01
6.021802951135924592e-02
-2.266367268445458050e-01
3.158174942907093080e-02
-5.145790129003410297e-03
4.761682414599157503e-02
1.029489576351192148e-01
4.451390490053374477e-02
4.573881508216264338e-03
7.238205258865129665e-02
2.785828966516785271e-02
7.263579001443506988e-02
4.135398947153012816e-02
7.571842103321996253e-02
-4.480294691080327629e-02
1.331069737994393203e-02
-2.736859811099108530e-02
-3.480879656459658078e-02
2.112965494171342370e-03
-4.514606157302216392e-03
1.906426198979206676e-02
-2.942176645163093948e-02
2.724632761967960004e-02
6.024859636868811624e-02
1.548229645475865217e-02
2.316642752357613716e-02
-3.228377685589221002e-01
2.426372297854219318e-02
2.907890297199862070e-02
6.480200633459623494e-02
-4.261483098635266559e-03
5.092302188891395520e-02
-2.059925232949273155e-01
3.497187871925093450e-02
9.735758233155084040e-02
-6.543713293871245007e-02
-2.574750900205616862e-03
1.407279649286430172e-03
1.187676363928572357e-02
3.807825439266668971e-02
1.060177787719671638e-01
-4.981147590003744824e-02
1.870032431176285870e-01
2.894036654449929497e-02
7.299151308713767473e-03
3.435789368592308962e-02
-2.185816280203125433e-02
-7.285724562364467860e-02
-5.625501715317452606e-02
5.053034656598048846e-02
8.292771546931716753e-02
9.620013940131908262e-03
1.292595985908228436e-03
-8.880136040694212862e-02
-7.989665933235683137e-02
-8.240382653895154952e-02
4.679226876363629106e-02
1.142700656030665087e-03
1.395594421340354552e-01
8.646911760315674489e-02
5.175944393985096315e-02
-2.533597981110155550e-02
-1.293356386405913605e-01
1.862562206874128143e-02
-3.982713510476734720e-02
4.831008120432329217e-02
8.442606309734179346e-03
1.913010714253180616e-02
5.588568459674838479e-02
2.107305975604476314e-02
4.535691987246974477e-02
6.877109288765277488e-03
-6.157196395391198451e-02
1.130700572849801556e-02
-1.587512817238441454e-01
1.086190846806792537e-01
-1.327018070941995975e-01
6.534184707317801377e-02
-2.019290412250245026e-02
-8.534344374915575279e-03
1.598335284534791595e-02
-4.123612179839370590e-02
1.705016404003515881e-02
-1.242440723644463313e-02
-4.557234194361006741e-02
-5.009981464008186891e-02
-2.300920683779868366e-03
-2.072111328361655319e-03
-5.421207317682734221e-03
-1.359834581396865763e-02
-4.044243961253432551e-02
5.425144423146772282e-02
2.057468181198554916e-02
6.845990592507266055e-03
6.294553795603306801e-02
-6.367857961973202689e-03
3.643939934008347953e-02
1.243638116366899485e-02
4.792403746165090073e-02
-1.081355446570085414e-02
-9.026339263049645845e-03
-1.106986200282947599e-02
-2.503370366924339424e-02
-5.618317307141380834e-02
-6.098712289460678920e-02
4.855557167685706221e-02
1.273011258531279999e-01
-8.963203804858106694e-02
-3.663020496452338848e-01
-1.627537667073498395e-01
2.425882191890975717e-02
2.686967795879681431e-02
-1.416212149399652676e-01
-1.299053685526672941e-02
3.331706375116022523e-02
7.612755559163217334e-02
-1.075163292695065081e-01
1.063695369339172879e-02
-3.605774651991424523e-02
-4.775293259519023531e-02
-3.426168398383692970e-02
3.079350845355497898e-02
7.446893793219360423e-03
4.719821562692602668e-02
1.675610554595851481e-02
3.179931881012593858e-02
2.012962573242173953e-02
-4.712530933375389669e-02
-4.121100715162481776e-02
7.664705293386078755e-02
-6.237096797741146365e-02
2.703482469644793995e-01
-1.449655280775552675e-02
8.156426405154881473e-03
7.260542059034322607e-03
8.064949902645571211e-03
2.437753969074580099e-02
1.112701803316114985e-01
1.368253505592570141e-01
-2.608730704225111774e-01
-5.647796553539738973e-01
8.476735827101070098e-02
-5.587338476043520602e-02
-6.011148814807552171e-02
-5.035199280005837885e-02
-6.840817810923856268e-02
-7.881564208246591430e-02
-8.779030930524081566e-03
-1.015349845830422204e-01
-3.098272002403765560e-02
-3.644708247980991273e-02
2.486595138524722373e-02
1.882157298003145907e-01
-9.627950340050490941e-03
3.241702436567071854e-02
1.286114495720693529e-01
2.091757030814178284e-02
